<?xml version="1.0"?>
<opencv_storage>
<myhaar type_id="opencv-haar-classifier">
  <size>
    24 24</size>
  <stages>
    <_>
      <trees>
        <_>
          <_>
            <feature>
              <rects>
                <_>
                  2 0 19 6 -1.</_>
                <_>
                  2 3 19 3 2.</_></rects>
              <tilted>0</tilted></feature>
            <threshold>0.0320693999528885</threshold>
            <left_val>-0.3598200082778931</left_val>
            <right_val>0.5891811847686768</right_val></_></_>
        <_>
          <_>
            <feature>
              <rects>
                <_>
                  23 0 1 6 -1.</_>
                <_>
                  23 3 1 3 2.</_></rects>
              <tilted>0</tilted></feature>
            <threshold>1.3268139446154237e-004</threshold>
            <left_val>-0.3681890070438385</left_val>
            <right_val>0.2463877946138382</right_val></_></_>
        <_>
          <_>
            <feature>
              <rects>
                <_>
                  2 23 20 1 -1.</_>
                <_>
                  7 23 10 1 2.</_></rects>
              <tilted>0</tilted></feature>
            <threshold>-3.1676050275564194e-003</threshold>
            <left_val>-0.5882769823074341</left_val>
            <right_val>0.2051604986190796</right_val></_></_>
        <_>
          <_>
            <feature>
              <rects>
                <_>
                  18 22 3 2 -1.</_>
                <_>
                  19 22 1 2 3.</_></rects>
              <tilted>0</tilted></feature>
            <threshold>-8.9730671606957912e-004</threshold>
            <left_val>-0.8136401772499085</left_val>
            <right_val>0.1402177959680557</right_val></_></_>
        <_>
          <_>
            <feature>
              <rects>
                <_>
                  0 14 1 4 -1.</_>
                <_>
                  0 15 1 2 2.</_></rects>
              <tilted>0</tilted></feature>
            <threshold>-3.5220131394453347e-004</threshold>
            <left_val>-0.6363645195960999</left_val>
            <right_val>0.1659249961376190</right_val></_></_>
        <_>
          <_>
            <feature>
              <rects>
                <_>
                  3 18 18 6 -1.</_>
                <_>
                  3 21 18 3 2.</_></rects>
              <tilted>0</tilted></feature>
            <threshold>0.0933353826403618</threshold>
            <left_val>-0.1271906048059464</left_val>
            <right_val>0.9841222167015076</right_val></_></_>
        <_>
          <_>
            <feature>
              <rects>
                <_>
                  0 0 4 6 -1.</_>
                <_>
                  0 3 4 3 2.</_></rects>
              <tilted>0</tilted></feature>
            <threshold>1.5612220158800483e-003</threshold>
            <left_val>-0.4158884882926941</left_val>
            <right_val>0.3436278998851776</right_val></_></_>
        <_>
          <_>
            <feature>
              <rects>
                <_>
                  18 22 3 2 -1.</_>
                <_>
                  19 22 1 2 3.</_></rects>
              <tilted>0</tilted></feature>
            <threshold>5.8979721507057548e-004</threshold>
            <left_val>0.1488496065139771</left_val>
            <right_val>-0.5348333716392517</right_val></_></_>
        <_>
          <_>
            <feature>
              <rects>
                <_>
                  3 22 3 2 -1.</_>
                <_>
                  4 22 1 2 3.</_></rects>
              <tilted>0</tilted></feature>
            <threshold>-5.8210361748933792e-004</threshold>
            <left_val>-0.6970996260643005</left_val>
            <right_val>0.1809311062097549</right_val></_></_>
        <_>
          <_>
            <feature>
              <rects>
                <_>
                  1 20 22 4 -1.</_>
                <_>
                  1 21 22 2 2.</_></rects>
              <tilted>0</tilted></feature>
            <threshold>-4.0396908298134804e-003</threshold>
            <left_val>0.3147824108600617</left_val>
            <right_val>-0.3916634917259216</right_val></_></_>
        <_>
          <_>
            <feature>
              <rects>
                <_>
                  0 6 5 4 -1.</_>
                <_>
                  0 8 5 2 2.</_></rects>
              <tilted>0</tilted></feature>
            <threshold>8.8374326878692955e-005</threshold>
            <left_val>-0.3216669857501984</left_val>
            <right_val>0.3761157989501953</right_val></_></_></trees>
      <stage_threshold>-1.1292350292205811</stage_threshold>
      <parent>-1</parent>
      <next>-1</next></_>
    <_>
      <trees>
        <_>
          <_>
            <feature>
              <rects>
                <_>
                  1 0 19 8 -1.</_>
                <_>
                  1 4 19 4 2.</_></rects>
              <tilted>0</tilted></feature>
            <threshold>0.0285857003182173</threshold>
            <left_val>-0.3912746012210846</left_val>
            <right_val>0.4364388883113861</right_val></_></_>
        <_>
          <_>
            <feature>
              <rects>
                <_>
                  23 5 1 4 -1.</_>
                <_>
                  23 6 1 2 2.</_></rects>
              <tilted>0</tilted></feature>
            <threshold>-1.0239270050078630e-003</threshold>
            <left_val>-0.7460014224052429</left_val>
            <right_val>0.1486894041299820</right_val></_></_>
        <_>
          <_>
            <feature>
              <rects>
                <_>
                  0 16 1 2 -1.</_>
                <_>
                  0 17 1 1 2.</_></rects>
              <tilted>0</tilted></feature>
            <threshold>-7.5171131175011396e-004</threshold>
            <left_val>-0.7944266796112061</left_val>
            <right_val>0.1751606017351151</right_val></_></_>
        <_>
          <_>
            <feature>
              <rects>
                <_>
                  22 0 2 18 -1.</_>
                <_>
                  22 0 1 18 2.</_></rects>
              <tilted>0</tilted></feature>
            <threshold>1.2710440205410123e-003</threshold>
            <left_val>-0.3202348053455353</left_val>
            <right_val>0.2730472087860107</right_val></_></_>
        <_>
          <_>
            <feature>
              <rects>
                <_>
                  3 22 3 2 -1.</_>
                <_>
                  4 22 1 2 3.</_></rects>
              <tilted>0</tilted></feature>
            <threshold>4.7059109783731401e-004</threshold>
            <left_val>0.1802446991205216</left_val>
            <right_val>-0.6090828180313110</right_val></_></_>
        <_>
          <_>
            <feature>
              <rects>
                <_>
                  22 10 2 8 -1.</_>
                <_>
                  22 10 1 8 2.</_></rects>
              <tilted>0</tilted></feature>
            <threshold>-9.0306252241134644e-003</threshold>
            <left_val>0.5086954832077026</left_val>
            <right_val>-0.0652913376688957</right_val></_></_>
        <_>
          <_>
            <feature>
              <rects>
                <_>
                  0 10 2 8 -1.</_>
                <_>
                  1 10 1 8 2.</_></rects>
              <tilted>0</tilted></feature>
            <threshold>1.8135519931092858e-003</threshold>
            <left_val>-0.2313662022352219</left_val>
            <right_val>0.5194342136383057</right_val></_></_>
        <_>
          <_>
            <feature>
              <rects>
                <_>
                  23 18 1 6 -1.</_>
                <_>
                  23 21 1 3 2.</_></rects>
              <tilted>0</tilted></feature>
            <threshold>-0.0108344703912735</threshold>
            <left_val>-0.8632705807685852</left_val>
            <right_val>9.6371732652187347e-003</right_val></_></_>
        <_>
          <_>
            <feature>
              <rects>
                <_>
                  0 18 1 6 -1.</_>
                <_>
                  0 21 1 3 2.</_></rects>
              <tilted>0</tilted></feature>
            <threshold>-2.0690700330305845e-004</threshold>
            <left_val>0.3532621860504150</left_val>
            <right_val>-0.3569056093692780</right_val></_></_>
        <_>
          <_>
            <feature>
              <rects>
                <_>
                  2 20 22 4 -1.</_>
                <_>
                  2 22 22 2 2.</_></rects>
              <tilted>0</tilted></feature>
            <threshold>0.0282272398471832</threshold>
            <left_val>-0.1929239034652710</left_val>
            <right_val>0.6555402278900147</right_val></_></_>
        <_>
          <_>
            <feature>
              <rects>
                <_>
                  1 1 4 5 -1.</_>
                <_>
                  3 1 2 5 2.</_></rects>
              <tilted>0</tilted></feature>
            <threshold>4.7659358824603260e-004</threshold>
            <left_val>-0.3307042121887207</left_val>
            <right_val>0.3858726918697357</right_val></_></_>
        <_>
          <_>
            <feature>
              <rects>
                <_>
                  13 21 3 1 -1.</_>
                <_>
                  14 21 1 1 3.</_></rects>
              <tilted>0</tilted></feature>
            <threshold>-5.0323270261287689e-004</threshold>
            <left_val>-0.5621479749679565</left_val>
            <right_val>0.0629681721329689</right_val></_></_>
        <_>
          <_>
            <feature>
              <rects>
                <_>
                  2 3 1 3 -1.</_>
                <_>
                  2 4 1 1 3.</_></rects>
              <tilted>0</tilted></feature>
            <threshold>2.5741200079210103e-004</threshold>
            <left_val>0.2389494925737381</left_val>
            <right_val>-0.4620673060417175</right_val></_></_>
        <_>
          <_>
            <feature>
              <rects>
                <_>
                  15 22 3 2 -1.</_>
                <_>
                  16 22 1 2 3.</_></rects>
              <tilted>0</tilted></feature>
            <threshold>-8.8182638864964247e-004</threshold>
            <left_val>-0.4637503921985626</left_val>
            <right_val>0.0618026591837406</right_val></_></_>
        <_>
          <_>
            <feature>
              <rects>
                <_>
                  6 22 3 2 -1.</_>
                <_>
                  7 22 1 2 3.</_></rects>
              <tilted>0</tilted></feature>
            <threshold>-5.1219732267782092e-004</threshold>
            <left_val>-0.7133854031562805</left_val>
            <right_val>0.1517551988363266</right_val></_></_>
        <_>
          <_>
            <feature>
              <rects>
                <_>
                  15 19 2 4 -1.</_>
                <_>
                  15 19 1 4 2.</_></rects>
              <tilted>0</tilted></feature>
            <threshold>-8.0952938878908753e-004</threshold>
            <left_val>-0.4234018921852112</left_val>
            <right_val>0.0640356615185738</right_val></_></_>
        <_>
          <_>
            <feature>
              <rects>
                <_>
                  7 19 2 4 -1.</_>
                <_>
                  8 19 1 4 2.</_></rects>
              <tilted>0</tilted></feature>
            <threshold>-2.4301389930769801e-004</threshold>
            <left_val>-0.5027685165405273</left_val>
            <right_val>0.2124239057302475</right_val></_></_></trees>
      <stage_threshold>-1.2827060222625732</stage_threshold>
      <parent>0</parent>
      <next>-1</next></_>
    <_>
      <trees>
        <_>
          <_>
            <feature>
              <rects>
                <_>
                  0 0 1 6 -1.</_>
                <_>
                  0 3 1 3 2.</_></rects>
              <tilted>0</tilted></feature>
            <threshold>1.3366510393097997e-004</threshold>
            <left_val>-0.5839440226554871</left_val>
            <right_val>0.4330045878887177</right_val></_></_>
        <_>
          <_>
            <feature>
              <rects>
                <_>
                  16 8 8 4 -1.</_>
                <_>
                  16 8 4 4 2.</_></rects>
              <tilted>0</tilted></feature>
            <threshold>5.5254008620977402e-003</threshold>
            <left_val>-0.4406979978084564</left_val>
            <right_val>0.3806551992893219</right_val></_></_>
        <_>
          <_>
            <feature>
              <rects>
                <_>
                  1 4 2 15 -1.</_>
                <_>
                  1 9 2 5 3.</_></rects>
              <tilted>0</tilted></feature>
            <threshold>5.9806010540341958e-005</threshold>
            <left_val>-0.6495376229286194</left_val>
            <right_val>0.3981589972972870</right_val></_></_>
        <_>
          <_>
            <feature>
              <rects>
                <_>
                  22 18 1 4 -1.</_>
                <_>
                  22 20 1 2 2.</_></rects>
              <tilted>0</tilted></feature>
            <threshold>-3.7160349165787920e-005</threshold>
            <left_val>0.3714221119880676</left_val>
            <right_val>-0.6613876819610596</right_val></_></_>
        <_>
          <_>
            <feature>
              <rects>
                <_>
                  1 8 8 3 -1.</_>
                <_>
                  5 8 4 3 2.</_></rects>
              <tilted>0</tilted></feature>
            <threshold>3.0583529733121395e-003</threshold>
            <left_val>-0.4119730889797211</left_val>
            <right_val>0.6643276810646057</right_val></_></_>
        <_>
          <_>
            <feature>
              <rects>
                <_>
                  6 4 18 15 -1.</_>
                <_>
                  12 4 6 15 3.</_></rects>
              <tilted>0</tilted></feature>
            <threshold>-0.0550617091357708</threshold>
            <left_val>0.6137409210205078</left_val>
            <right_val>-0.5428537130355835</right_val></_></_>
        <_>
          <_>
            <feature>
              <rects>
                <_>
                  2 6 12 12 -1.</_>
                <_>
                  5 6 6 12 2.</_></rects>
              <tilted>0</tilted></feature>
            <threshold>-5.5955548305064440e-004</threshold>
            <left_val>0.7355753183364868</left_val>
            <right_val>-0.4904727935791016</right_val></_></_>
        <_>
          <_>
            <feature>
              <rects>
                <_>
                  17 13 6 1 -1.</_>
                <_>
                  17 13 3 1 2.</_></rects>
              <tilted>0</tilted></feature>
            <threshold>1.4571710380550940e-005</threshold>
            <left_val>-0.2868253886699677</left_val>
            <right_val>0.4467558860778809</right_val></_></_>
        <_>
          <_>
            <feature>
              <rects>
                <_>
                  1 6 4 14 -1.</_>
                <_>
                  3 6 2 14 2.</_></rects>
              <tilted>0</tilted></feature>
            <threshold>5.4206588538363576e-004</threshold>
            <left_val>-0.5615105032920837</left_val>
            <right_val>0.4879767000675201</right_val></_></_>
        <_>
          <_>
            <feature>
              <rects>
                <_>
                  15 10 9 10 -1.</_>
                <_>
                  18 10 3 10 3.</_></rects>
              <tilted>0</tilted></feature>
            <threshold>-4.4106440618634224e-003</threshold>
            <left_val>0.4192895889282227</left_val>
            <right_val>-0.6207941770553589</right_val></_></_>
        <_>
          <_>
            <feature>
              <rects>
                <_>
                  2 2 20 12 -1.</_>
                <_>
                  12 2 10 12 2.</_></rects>
              <tilted>0</tilted></feature>
            <threshold>4.2726588435471058e-003</threshold>
            <left_val>-0.4170542955398560</left_val>
            <right_val>0.6302214860916138</right_val></_></_>
        <_>
          <_>
            <feature>
              <rects>
                <_>
                  4 0 16 12 -1.</_>
                <_>
                  4 0 8 12 2.</_></rects>
              <tilted>0</tilted></feature>
            <threshold>8.4250152576714754e-004</threshold>
            <left_val>-0.6695520281791687</left_val>
            <right_val>0.5297263860702515</right_val></_></_>
        <_>
          <_>
            <feature>
              <rects>
                <_>
                  5 0 14 11 -1.</_>
                <_>
                  12 0 7 11 2.</_></rects>
              <tilted>0</tilted></feature>
            <threshold>3.4278011298738420e-004</threshold>
            <left_val>-0.7558127045631409</left_val>
            <right_val>0.6217728257179260</right_val></_></_>
        <_>
          <_>
            <feature>
              <rects>
                <_>
                  4 3 16 6 -1.</_>
                <_>
                  4 3 8 6 2.</_></rects>
              <tilted>0</tilted></feature>
            <threshold>2.9577640816569328e-004</threshold>
            <left_val>-0.8655359148979187</left_val>
            <right_val>0.7121645212173462</right_val></_></_>
        <_>
          <_>
            <feature>
              <rects>
                <_>
                  4 5 16 3 -1.</_>
                <_>
                  12 5 8 3 2.</_></rects>
              <tilted>0</tilted></feature>
            <threshold>2.1708779968321323e-003</threshold>
            <left_val>-0.9416792988777161</left_val>
            <right_val>0.8730546832084656</right_val></_></_>
        <_>
          <_>
            <feature>
              <rects>
                <_>
                  4 5 16 2 -1.</_>
                <_>
                  4 5 8 2 2.</_></rects>
              <tilted>0</tilted></feature>
            <threshold>3.0128611251711845e-004</threshold>
            <left_val>-0.9863957166671753</left_val>
            <right_val>0.9236449003219605</right_val></_></_>
        <_>
          <_>
            <feature>
              <rects>
                <_>
                  0 0 2 1 -1.</_>
                <_>
                  1 0 1 1 2.</_></rects>
              <tilted>0</tilted></feature>
            <threshold>0.</threshold>
            <left_val>0.</left_val>
            <right_val>-1.</right_val></_></_>
        <_>
          <_>
            <feature>
              <rects>
                <_>
                  0 22 24 1 -1.</_>
                <_>
                  8 22 8 1 3.</_></rects>
              <tilted>0</tilted></feature>
            <threshold>2.5014680431922898e-005</threshold>
            <left_val>-0.9474822878837585</left_val>
            <right_val>0.9285060763359070</right_val></_></_>
        <_>
          <_>
            <feature>
              <rects>
                <_>
                  0 21 24 2 -1.</_>
                <_>
                  6 21 12 2 2.</_></rects>
              <tilted>0</tilted></feature>
            <threshold>-3.3032908686436713e-004</threshold>
            <left_val>1.</left_val>
            <right_val>-0.9999998211860657</right_val></_></_>
        <_>
          <_>
            <feature>
              <rects>
                <_>
                  0 21 24 2 -1.</_>
                <_>
                  6 21 12 2 2.</_></rects>
              <tilted>0</tilted></feature>
            <threshold>2.8598541393876076e-004</threshold>
            <left_val>-0.9487453103065491</left_val>
            <right_val>0.9467508792877197</right_val></_></_>
        <_>
          <_>
            <feature>
              <rects>
                <_>
                  0 18 21 6 -1.</_>
                <_>
                  7 18 7 6 3.</_></rects>
              <tilted>0</tilted></feature>
            <threshold>-9.4663002528250217e-004</threshold>
            <left_val>1.</left_val>
            <right_val>-0.9972726702690125</right_val></_></_>
        <_>
          <_>
            <feature>
              <rects>
                <_>
                  3 18 21 6 -1.</_>
                <_>
                  10 18 7 6 3.</_></rects>
              <tilted>0</tilted></feature>
            <threshold>3.4651739406399429e-004</threshold>
            <left_val>-0.9048206210136414</left_val>
            <right_val>0.8424069881439209</right_val></_></_>
        <_>
          <_>
            <feature>
              <rects>
                <_>
                  6 0 3 12 -1.</_>
                <_>
                  6 6 3 6 2.</_></rects>
              <tilted>0</tilted></feature>
            <threshold>1.3425579527392983e-004</threshold>
            <left_val>-0.9869512915611267</left_val>
            <right_val>0.9261028170585632</right_val></_></_>
        <_>
          <_>
            <feature>
              <rects>
                <_>
                  22 0 2 1 -1.</_>
                <_>
                  22 0 1 1 2.</_></rects>
              <tilted>0</tilted></feature>
            <threshold>0.</threshold>
            <left_val>0.</left_val>
            <right_val>-1.</right_val></_></_>
        <_>
          <_>
            <feature>
              <rects>
                <_>
                  6 0 3 12 -1.</_>
                <_>
                  6 6 3 6 2.</_></rects>
              <tilted>0</tilted></feature>
            <threshold>-3.1814339308766648e-005</threshold>
            <left_val>1.</left_val>
            <right_val>-0.9338741898536682</right_val></_></_>
        <_>
          <_>
            <feature>
              <rects>
                <_>
                  19 0 5 4 -1.</_>
                <_>
                  19 2 5 2 2.</_></rects>
              <tilted>0</tilted></feature>
            <threshold>2.8812790333176963e-005</threshold>
            <left_val>-0.8530480861663818</left_val>
            <right_val>0.9519457221031189</right_val></_></_>
        <_>
          <_>
            <feature>
              <rects>
                <_>
                  5 1 3 21 -1.</_>
                <_>
                  5 8 3 7 3.</_></rects>
              <tilted>0</tilted></feature>
            <threshold>2.1304589608917013e-005</threshold>
            <left_val>-0.9633777737617493</left_val>
            <right_val>0.9255433082580566</right_val></_></_>
        <_>
          <_>
            <feature>
              <rects>
                <_>
                  21 9 3 4 -1.</_>
                <_>
                  22 9 1 4 3.</_></rects>
              <tilted>0</tilted></feature>
            <threshold>7.8194352681748569e-005</threshold>
            <left_val>-0.9920107126235962</left_val>
            <right_val>1.</right_val></_></_>
        <_>
          <_>
            <feature>
              <rects>
                <_>
                  0 0 2 1 -1.</_>
                <_>
                  1 0 1 1 2.</_></rects>
              <tilted>0</tilted></feature>
            <threshold>0.</threshold>
            <left_val>0.</left_val>
            <right_val>-1.</right_val></_></_>
        <_>
          <_>
            <feature>
              <rects>
                <_>
                  19 20 2 4 -1.</_>
                <_>
                  19 20 1 4 2.</_></rects>
              <tilted>0</tilted></feature>
            <threshold>1.1746799827960785e-005</threshold>
            <left_val>-0.9392439723014832</left_val>
            <right_val>0.9529960155487061</right_val></_></_>
        <_>
          <_>
            <feature>
              <rects>
                <_>
                  0 3 21 15 -1.</_>
                <_>
                  7 8 7 5 9.</_></rects>
              <tilted>0</tilted></feature>
            <threshold>0.0177778992801905</threshold>
            <left_val>-1.</left_val>
            <right_val>1.</right_val></_></_>
        <_>
          <_>
            <feature>
              <rects>
                <_>
                  22 0 2 1 -1.</_>
                <_>
                  22 0 1 1 2.</_></rects>
              <tilted>0</tilted></feature>
            <threshold>0.</threshold>
            <left_val>0.</left_val>
            <right_val>-1.</right_val></_></_>
        <_>
          <_>
            <feature>
              <rects>
                <_>
                  0 4 21 15 -1.</_>
                <_>
                  7 9 7 5 9.</_></rects>
              <tilted>0</tilted></feature>
            <threshold>-2.1332039032131433e-003</threshold>
            <left_val>1.</left_val>
            <right_val>-0.9775621294975281</right_val></_></_>
        <_>
          <_>
            <feature>
              <rects>
                <_>
                  22 0 1 12 -1.</_>
                <_>
                  22 3 1 6 2.</_></rects>
              <tilted>0</tilted></feature>
            <threshold>1.6293259250232950e-005</threshold>
            <left_val>-0.7611650824546814</left_val>
            <right_val>0.9087886214256287</right_val></_></_>
        <_>
          <_>
            <feature>
              <rects>
                <_>
                  1 13 2 7 -1.</_>
                <_>
                  2 13 1 7 2.</_></rects>
              <tilted>0</tilted></feature>
            <threshold>2.0842260710196570e-005</threshold>
            <left_val>-0.9872543811798096</left_val>
            <right_val>0.9563341140747070</right_val></_></_>
        <_>
          <_>
            <feature>
              <rects>
                <_>
                  22 0 2 6 -1.</_>
                <_>
                  23 0 1 3 2.</_>
                <_>
                  22 3 1 3 2.</_></rects>
              <tilted>0</tilted></feature>
            <threshold>-2.3435050388798118e-004</threshold>
            <left_val>1.</left_val>
            <right_val>-0.9999998807907105</right_val></_></_>
        <_>
          <_>
            <feature>
              <rects>
                <_>
                  12 7 8 2 -1.</_>
                <_>
                  14 9 4 2 2.</_></rects>
              <tilted>1</tilted></feature>
            <threshold>1.9345240434631705e-004</threshold>
            <left_val>-0.9772009253501892</left_val>
            <right_val>0.9743145704269409</right_val></_></_>
        <_>
          <_>
            <feature>
              <rects>
                <_>
                  21 0 3 1 -1.</_>
                <_>
                  22 0 1 1 3.</_></rects>
              <tilted>0</tilted></feature>
            <threshold>0.</threshold>
            <left_val>0.</left_val>
            <right_val>-0.9933146834373474</right_val></_></_>
        <_>
          <_>
            <feature>
              <rects>
                <_>
                  1 14 1 8 -1.</_>
                <_>
                  1 18 1 4 2.</_></rects>
              <tilted>0</tilted></feature>
            <threshold>-5.1100920245517045e-005</threshold>
            <left_val>0.9883381128311157</left_val>
            <right_val>-0.9516866207122803</right_val></_></_>
        <_>
          <_>
            <feature>
              <rects>
                <_>
                  18 16 6 4 -1.</_>
                <_>
                  18 17 6 2 2.</_></rects>
              <tilted>0</tilted></feature>
            <threshold>1.3638769814861007e-005</threshold>
            <left_val>-0.6931810975074768</left_val>
            <right_val>0.8077468872070313</right_val></_></_>
        <_>
          <_>
            <feature>
              <rects>
                <_>
                  1 19 12 5 -1.</_>
                <_>
                  5 19 4 5 3.</_></rects>
              <tilted>0</tilted></feature>
            <threshold>1.5738459769636393e-003</threshold>
            <left_val>-0.9359111189842224</left_val>
            <right_val>0.9617109894752502</right_val></_></_>
        <_>
          <_>
            <feature>
              <rects>
                <_>
                  15 8 3 5 -1.</_>
                <_>
                  16 9 1 5 3.</_></rects>
              <tilted>1</tilted></feature>
            <threshold>-1.1362539953552186e-004</threshold>
            <left_val>0.9093965291976929</left_val>
            <right_val>-0.9731311202049255</right_val></_></_>
        <_>
          <_>
            <feature>
              <rects>
                <_>
                  3 3 9 3 -1.</_>
                <_>
                  6 4 3 1 9.</_></rects>
              <tilted>0</tilted></feature>
            <threshold>-2.1287859999574721e-004</threshold>
            <left_val>0.9598065018653870</left_val>
            <right_val>-0.9155716896057129</right_val></_></_>
        <_>
          <_>
            <feature>
              <rects>
                <_>
                  21 1 3 4 -1.</_>
                <_>
                  21 3 3 2 2.</_></rects>
              <tilted>0</tilted></feature>
            <threshold>1.9300659914733842e-005</threshold>
            <left_val>-0.5942466855049133</left_val>
            <right_val>0.8513454794883728</right_val></_></_>
        <_>
          <_>
            <feature>
              <rects>
                <_>
                  0 16 7 4 -1.</_>
                <_>
                  0 17 7 2 2.</_></rects>
              <tilted>0</tilted></feature>
            <threshold>1.2454709576559253e-005</threshold>
            <left_val>-0.9456987977027893</left_val>
            <right_val>0.9546648859977722</right_val></_></_>
        <_>
          <_>
            <feature>
              <rects>
                <_>
                  19 7 1 2 -1.</_>
                <_>
                  19 7 1 1 2.</_></rects>
              <tilted>1</tilted></feature>
            <threshold>-2.2706819436280057e-005</threshold>
            <left_val>1.</left_val>
            <right_val>-0.9579172730445862</right_val></_></_>
        <_>
          <_>
            <feature>
              <rects>
                <_>
                  0 13 1 4 -1.</_>
                <_>
                  0 15 1 2 2.</_></rects>
              <tilted>0</tilted></feature>
            <threshold>-1.8244090824737214e-005</threshold>
            <left_val>0.9508898258209229</left_val>
            <right_val>-0.9598140120506287</right_val></_></_>
        <_>
          <_>
            <feature>
              <rects>
                <_>
                  3 18 18 3 -1.</_>
                <_>
                  3 19 18 1 3.</_></rects>
              <tilted>0</tilted></feature>
            <threshold>4.0261118556372821e-005</threshold>
            <left_val>-0.8972576260566711</left_val>
            <right_val>0.8348864912986755</right_val></_></_>
        <_>
          <_>
            <feature>
              <rects>
                <_>
                  5 2 16 4 -1.</_>
                <_>
                  4 3 16 2 2.</_></rects>
              <tilted>1</tilted></feature>
            <threshold>-8.4293552208691835e-004</threshold>
            <left_val>0.9468325972557068</left_val>
            <right_val>-0.9356316924095154</right_val></_></_>
        <_>
          <_>
            <feature>
              <rects>
                <_>
                  22 1 2 6 -1.</_>
                <_>
                  22 4 2 3 2.</_></rects>
              <tilted>0</tilted></feature>
            <threshold>4.7815468860790133e-004</threshold>
            <left_val>-0.7379475831985474</left_val>
            <right_val>0.7045310735702515</right_val></_></_>
        <_>
          <_>
            <feature>
              <rects>
                <_>
                  1 1 6 3 -1.</_>
                <_>
                  4 1 3 3 2.</_></rects>
              <tilted>0</tilted></feature>
            <threshold>4.9533962737768888e-004</threshold>
            <left_val>-0.9174988269805908</left_val>
            <right_val>0.8566259145736694</right_val></_></_>
        <_>
          <_>
            <feature>
              <rects>
                <_>
                  13 1 10 5 -1.</_>
                <_>
                  13 1 5 5 2.</_></rects>
              <tilted>0</tilted></feature>
            <threshold>-0.0113179301843047</threshold>
            <left_val>0.8541802167892456</left_val>
            <right_val>-0.9299176931381226</right_val></_></_>
        <_>
          <_>
            <feature>
              <rects>
                <_>
                  10 4 14 1 -1.</_>
                <_>
                  10 4 7 1 2.</_></rects>
              <tilted>1</tilted></feature>
            <threshold>7.2069081943482161e-004</threshold>
            <left_val>-0.8911560773849487</left_val>
            <right_val>0.9258267879486084</right_val></_></_>
        <_>
          <_>
            <feature>
              <rects>
                <_>
                  13 6 2 10 -1.</_>
                <_>
                  13 6 1 10 2.</_></rects>
              <tilted>1</tilted></feature>
            <threshold>2.8265749569982290e-003</threshold>
            <left_val>-0.9105324745178223</left_val>
            <right_val>0.8061196208000183</right_val></_></_>
        <_>
          <_>
            <feature>
              <rects>
                <_>
                  0 3 8 20 -1.</_>
                <_>
                  0 3 4 10 2.</_>
                <_>
                  4 13 4 10 2.</_></rects>
              <tilted>0</tilted></feature>
            <threshold>1.2255660258233547e-003</threshold>
            <left_val>-1.</left_val>
            <right_val>1.0000009536743164</right_val></_></_>
        <_>
          <_>
            <feature>
              <rects>
                <_>
                  22 0 2 1 -1.</_>
                <_>
                  22 0 1 1 2.</_></rects>
              <tilted>0</tilted></feature>
            <threshold>0.</threshold>
            <left_val>0.</left_val>
            <right_val>-1.</right_val></_></_>
        <_>
          <_>
            <feature>
              <rects>
                <_>
                  6 4 9 3 -1.</_>
                <_>
                  9 4 3 3 3.</_></rects>
              <tilted>0</tilted></feature>
            <threshold>-3.9368729630950838e-005</threshold>
            <left_val>1.</left_val>
            <right_val>-0.9635828733444214</right_val></_></_>
        <_>
          <_>
            <feature>
              <rects>
                <_>
                  22 3 2 2 -1.</_>
                <_>
                  22 4 2 1 2.</_></rects>
              <tilted>0</tilted></feature>
            <threshold>-2.7804799174191430e-005</threshold>
            <left_val>0.9309731125831604</left_val>
            <right_val>-0.7100746035575867</right_val></_></_>
        <_>
          <_>
            <feature>
              <rects>
                <_>
                  7 9 5 4 -1.</_>
                <_>
                  7 9 5 2 2.</_></rects>
              <tilted>1</tilted></feature>
            <threshold>6.2938162591308355e-004</threshold>
            <left_val>-0.7127966880798340</left_val>
            <right_val>0.9878684878349304</right_val></_></_>
        <_>
          <_>
            <feature>
              <rects>
                <_>
                  22 3 2 2 -1.</_>
                <_>
                  22 4 2 1 2.</_></rects>
              <tilted>0</tilted></feature>
            <threshold>1.2454709576559253e-005</threshold>
            <left_val>-0.9150542020797730</left_val>
            <right_val>0.9774299263954163</right_val></_></_>
        <_>
          <_>
            <feature>
              <rects>
                <_>
                  8 9 8 1 -1.</_>
                <_>
                  8 9 4 1 2.</_></rects>
              <tilted>1</tilted></feature>
            <threshold>-5.9789221268147230e-005</threshold>
            <left_val>1.</left_val>
            <right_val>-0.9975240826606751</right_val></_></_>
        <_>
          <_>
            <feature>
              <rects>
                <_>
                  15 9 1 6 -1.</_>
                <_>
                  15 9 1 3 2.</_></rects>
              <tilted>1</tilted></feature>
            <threshold>2.0168660557828844e-004</threshold>
            <left_val>-0.8041874766349793</left_val>
            <right_val>1.</right_val></_></_>
        <_>
          <_>
            <feature>
              <rects>
                <_>
                  12 9 3 2 -1.</_>
                <_>
                  12 9 3 1 2.</_></rects>
              <tilted>1</tilted></feature>
            <threshold>-5.4545460443478078e-005</threshold>
            <left_val>1.</left_val>
            <right_val>-0.9962841868400574</right_val></_></_>
        <_>
          <_>
            <feature>
              <rects>
                <_>
                  11 10 4 11 -1.</_>
                <_>
                  11 10 2 11 2.</_></rects>
              <tilted>0</tilted></feature>
            <threshold>-1.3683699944522232e-004</threshold>
            <left_val>0.8487902283668518</left_val>
            <right_val>-0.7979168891906738</right_val></_></_>
        <_>
          <_>
            <feature>
              <rects>
                <_>
                  9 9 6 11 -1.</_>
                <_>
                  12 9 3 11 2.</_></rects>
              <tilted>0</tilted></feature>
            <threshold>-1.6205229258048348e-005</threshold>
            <left_val>0.9116178154945374</left_val>
            <right_val>-0.9486414194107056</right_val></_></_>
        <_>
          <_>
            <feature>
              <rects>
                <_>
                  9 1 9 5 -1.</_>
                <_>
                  12 1 3 5 3.</_></rects>
              <tilted>0</tilted></feature>
            <threshold>-5.6605390273034573e-004</threshold>
            <left_val>0.6814718246459961</left_val>
            <right_val>-0.3725788891315460</right_val></_></_>
        <_>
          <_>
            <feature>
              <rects>
                <_>
                  5 1 12 5 -1.</_>
                <_>
                  8 1 6 5 2.</_></rects>
              <tilted>0</tilted></feature>
            <threshold>7.6836236985400319e-005</threshold>
            <left_val>-0.6499798893928528</left_val>
            <right_val>0.9045677781105042</right_val></_></_>
        <_>
          <_>
            <feature>
              <rects>
                <_>
                  18 21 6 3 -1.</_>
                <_>
                  18 22 6 1 3.</_></rects>
              <tilted>0</tilted></feature>
            <threshold>-8.4677769336849451e-005</threshold>
            <left_val>0.5823585987091065</left_val>
            <right_val>-0.7561311125755310</right_val></_></_>
        <_>
          <_>
            <feature>
              <rects>
                <_>
                  0 21 16 2 -1.</_>
                <_>
                  0 21 8 1 2.</_>
                <_>
                  8 22 8 1 2.</_></rects>
              <tilted>0</tilted></feature>
            <threshold>2.1287849449436180e-005</threshold>
            <left_val>-0.6742916703224182</left_val>
            <right_val>0.8724361062049866</right_val></_></_>
        <_>
          <_>
            <feature>
              <rects>
                <_>
                  13 20 11 2 -1.</_>
                <_>
                  13 21 11 1 2.</_></rects>
              <tilted>0</tilted></feature>
            <threshold>-1.0027449752669781e-004</threshold>
            <left_val>0.5722441077232361</left_val>
            <right_val>-0.8098394274711609</right_val></_></_>
        <_>
          <_>
            <feature>
              <rects>
                <_>
                  12 10 12 1 -1.</_>
                <_>
                  16 14 4 1 3.</_></rects>
              <tilted>1</tilted></feature>
            <threshold>-4.7350458771688864e-005</threshold>
            <left_val>0.9064962863922119</left_val>
            <right_val>-0.7230967283248901</right_val></_></_>
        <_>
          <_>
            <feature>
              <rects>
                <_>
                  23 0 1 6 -1.</_>
                <_>
                  23 3 1 3 2.</_></rects>
              <tilted>0</tilted></feature>
            <threshold>-2.8467341326177120e-004</threshold>
            <left_val>0.8255056142807007</left_val>
            <right_val>-0.1656035929918289</right_val></_></_>
        <_>
          <_>
            <feature>
              <rects>
                <_>
                  0 0 1 4 -1.</_>
                <_>
                  0 2 1 2 2.</_></rects>
              <tilted>0</tilted></feature>
            <threshold>1.6293259250232950e-005</threshold>
            <left_val>-0.6381111741065979</left_val>
            <right_val>0.7341313958168030</right_val></_></_>
        <_>
          <_>
            <feature>
              <rects>
                <_>
                  11 21 2 2 -1.</_>
                <_>
                  11 22 2 1 2.</_></rects>
              <tilted>0</tilted></feature>
            <threshold>-1.8840799384634010e-005</threshold>
            <left_val>0.7956165075302124</left_val>
            <right_val>-0.7899640202522278</right_val></_></_>
        <_>
          <_>
            <feature>
              <rects>
                <_>
                  9 1 10 3 -1.</_>
                <_>
                  8 2 10 1 3.</_></rects>
              <tilted>1</tilted></feature>
            <threshold>-6.4362531702499837e-005</threshold>
            <left_val>0.8144977092742920</left_val>
            <right_val>-0.6797904968261719</right_val></_></_>
        <_>
          <_>
            <feature>
              <rects>
                <_>
                  21 13 3 6 -1.</_>
                <_>
                  21 15 3 2 3.</_></rects>
              <tilted>0</tilted></feature>
            <threshold>-1.1747479438781738e-003</threshold>
            <left_val>0.4929584860801697</left_val>
            <right_val>-0.1739708930253983</right_val></_></_>
        <_>
          <_>
            <feature>
              <rects>
                <_>
                  0 13 3 6 -1.</_>
                <_>
                  0 15 3 2 3.</_></rects>
              <tilted>0</tilted></feature>
            <threshold>2.0130559278186411e-005</threshold>
            <left_val>-0.5055590271949768</left_val>
            <right_val>0.8268606066703796</right_val></_></_>
        <_>
          <_>
            <feature>
              <rects>
                <_>
                  14 16 6 2 -1.</_>
                <_>
                  16 18 2 2 3.</_></rects>
              <tilted>1</tilted></feature>
            <threshold>-4.4041121145710349e-004</threshold>
            <left_val>0.4208115935325623</left_val>
            <right_val>-0.6196848750114441</right_val></_></_>
        <_>
          <_>
            <feature>
              <rects>
                <_>
                  2 5 20 5 -1.</_>
                <_>
                  12 5 10 5 2.</_></rects>
              <tilted>0</tilted></feature>
            <threshold>1.1245839996263385e-003</threshold>
            <left_val>-0.5121731162071228</left_val>
            <right_val>0.8943850994110107</right_val></_></_>
        <_>
          <_>
            <feature>
              <rects>
                <_>
                  17 2 6 13 -1.</_>
                <_>
                  17 2 3 13 2.</_></rects>
              <tilted>0</tilted></feature>
            <threshold>9.0139743406325579e-005</threshold>
            <left_val>-0.6258149147033691</left_val>
            <right_val>0.5549986958503723</right_val></_></_>
        <_>
          <_>
            <feature>
              <rects>
                <_>
                  2 4 20 1 -1.</_>
                <_>
                  12 4 10 1 2.</_></rects>
              <tilted>0</tilted></feature>
            <threshold>-5.6113180471584201e-004</threshold>
            <left_val>0.7561349272727966</left_val>
            <right_val>-0.9240471720695496</right_val></_></_>
        <_>
          <_>
            <feature>
              <rects>
                <_>
                  10 2 4 7 -1.</_>
                <_>
                  10 2 2 7 2.</_></rects>
              <tilted>0</tilted></feature>
            <threshold>-7.5835981988348067e-005</threshold>
            <left_val>0.8130319118499756</left_val>
            <right_val>-0.6715613007545471</right_val></_></_>
        <_>
          <_>
            <feature>
              <rects>
                <_>
                  6 7 6 9 -1.</_>
                <_>
                  8 10 2 3 9.</_></rects>
              <tilted>0</tilted></feature>
            <threshold>-7.3997641447931528e-004</threshold>
            <left_val>0.8313357830047607</left_val>
            <right_val>-0.4795700013637543</right_val></_></_>
        <_>
          <_>
            <feature>
              <rects>
                <_>
                  13 2 10 21 -1.</_>
                <_>
                  13 2 5 21 2.</_></rects>
              <tilted>0</tilted></feature>
            <threshold>-1.4947060262784362e-003</threshold>
            <left_val>0.5916888713836670</left_val>
            <right_val>-0.2833383083343506</right_val></_></_>
        <_>
          <_>
            <feature>
              <rects>
                <_>
                  0 0 24 8 -1.</_>
                <_>
                  6 0 12 8 2.</_></rects>
              <tilted>0</tilted></feature>
            <threshold>0.0167436506599188</threshold>
            <left_val>-0.5204464197158814</left_val>
            <right_val>0.7462301254272461</right_val></_></_>
        <_>
          <_>
            <feature>
              <rects>
                <_>
                  13 0 6 7 -1.</_>
                <_>
                  15 2 2 7 3.</_></rects>
              <tilted>1</tilted></feature>
            <threshold>-5.5371248163282871e-004</threshold>
            <left_val>0.4710964858531952</left_val>
            <right_val>-0.5338243842124939</right_val></_></_>
        <_>
          <_>
            <feature>
              <rects>
                <_>
                  0 12 22 4 -1.</_>
                <_>
                  0 13 22 2 2.</_></rects>
              <tilted>0</tilted></feature>
            <threshold>-1.6236970259342343e-004</threshold>
            <left_val>0.6414324045181274</left_val>
            <right_val>-0.6719912886619568</right_val></_></_>
        <_>
          <_>
            <feature>
              <rects>
                <_>
                  4 9 17 12 -1.</_>
                <_>
                  4 12 17 6 2.</_></rects>
              <tilted>0</tilted></feature>
            <threshold>1.7018470316543244e-005</threshold>
            <left_val>-0.4645329117774963</left_val>
            <right_val>0.6940528154373169</right_val></_></_>
        <_>
          <_>
            <feature>
              <rects>
                <_>
                  11 0 7 6 -1.</_>
                <_>
                  9 2 7 2 3.</_></rects>
              <tilted>1</tilted></feature>
            <threshold>-1.4043909322936088e-004</threshold>
            <left_val>0.6644430756568909</left_val>
            <right_val>-0.5937256813049316</right_val></_></_>
        <_>
          <_>
            <feature>
              <rects>
                <_>
                  11 1 2 12 -1.</_>
                <_>
                  11 4 2 6 2.</_></rects>
              <tilted>0</tilted></feature>
            <threshold>3.6745538818649948e-004</threshold>
            <left_val>-0.6439446210861206</left_val>
            <right_val>0.5510287880897522</right_val></_></_>
        <_>
          <_>
            <feature>
              <rects>
                <_>
                  0 0 1 2 -1.</_>
                <_>
                  0 1 1 1 2.</_></rects>
              <tilted>0</tilted></feature>
            <threshold>9.7401471066405065e-006</threshold>
            <left_val>-0.6917384862899780</left_val>
            <right_val>0.4871923029422760</right_val></_></_>
        <_>
          <_>
            <feature>
              <rects>
                <_>
                  10 10 6 8 -1.</_>
                <_>
                  10 14 6 4 2.</_></rects>
              <tilted>0</tilted></feature>
            <threshold>-1.3524190580938011e-004</threshold>
            <left_val>0.4730237126350403</left_val>
            <right_val>-0.7292085886001587</right_val></_></_>
        <_>
          <_>
            <feature>
              <rects>
                <_>
                  1 6 16 18 -1.</_>
                <_>
                  1 15 16 9 2.</_></rects>
              <tilted>0</tilted></feature>
            <threshold>6.1524631455540657e-003</threshold>
            <left_val>-0.4879696965217590</left_val>
            <right_val>0.8408775925636292</right_val></_></_>
        <_>
          <_>
            <feature>
              <rects>
                <_>
                  0 8 24 14 -1.</_>
                <_>
                  8 8 8 14 3.</_></rects>
              <tilted>0</tilted></feature>
            <threshold>3.7458990700542927e-003</threshold>
            <left_val>-0.8381527066230774</left_val>
            <right_val>0.5813580155372620</right_val></_></_>
        <_>
          <_>
            <feature>
              <rects>
                <_>
                  12 12 6 6 -1.</_>
                <_>
                  14 14 2 6 3.</_></rects>
              <tilted>1</tilted></feature>
            <threshold>-1.3934030721429735e-004</threshold>
            <left_val>0.6353452801704407</left_val>
            <right_val>-0.8911789059638977</right_val></_></_>
        <_>
          <_>
            <feature>
              <rects>
                <_>
                  10 11 4 12 -1.</_>
                <_>
                  10 15 4 4 3.</_></rects>
              <tilted>0</tilted></feature>
            <threshold>9.5593437436036766e-005</threshold>
            <left_val>-0.7243633270263672</left_val>
            <right_val>0.7601603865623474</right_val></_></_>
        <_>
          <_>
            <feature>
              <rects>
                <_>
                  2 9 6 15 -1.</_>
                <_>
                  4 14 2 5 9.</_></rects>
              <tilted>0</tilted></feature>
            <threshold>-4.6271749306470156e-004</threshold>
            <left_val>0.7504308819770813</left_val>
            <right_val>-0.8720890879631043</right_val></_></_>
        <_>
          <_>
            <feature>
              <rects>
                <_>
                  19 7 4 9 -1.</_>
                <_>
                  19 7 2 9 2.</_></rects>
              <tilted>0</tilted></feature>
            <threshold>-1.2083729961887002e-004</threshold>
            <left_val>0.6988497972488403</left_val>
            <right_val>-0.6065592765808106</right_val></_></_>
        <_>
          <_>
            <feature>
              <rects>
                <_>
                  3 15 3 3 -1.</_>
                <_>
                  4 16 1 1 9.</_></rects>
              <tilted>0</tilted></feature>
            <threshold>1.5200010238913819e-005</threshold>
            <left_val>-0.5573300123214722</left_val>
            <right_val>0.7876331806182861</right_val></_></_>
        <_>
          <_>
            <feature>
              <rects>
                <_>
                  16 8 8 16 -1.</_>
                <_>
                  20 8 4 8 2.</_>
                <_>
                  16 16 4 8 2.</_></rects>
              <tilted>0</tilted></feature>
            <threshold>-3.6443041608436033e-005</threshold>
            <left_val>0.4969426989555359</left_val>
            <right_val>-0.6773902177810669</right_val></_></_>
        <_>
          <_>
            <feature>
              <rects>
                <_>
                  0 18 12 3 -1.</_>
                <_>
                  0 19 12 1 3.</_></rects>
              <tilted>0</tilted></feature>
            <threshold>2.0130559278186411e-005</threshold>
            <left_val>-0.5512753725051880</left_val>
            <right_val>0.7454614043235779</right_val></_></_>
        <_>
          <_>
            <feature>
              <rects>
                <_>
                  11 13 10 2 -1.</_>
                <_>
                  11 13 5 2 2.</_></rects>
              <tilted>0</tilted></feature>
            <threshold>7.8765733633190393e-005</threshold>
            <left_val>-0.6203020811080933</left_val>
            <right_val>0.3921017050743103</right_val></_></_>
        <_>
          <_>
            <feature>
              <rects>
                <_>
                  3 18 4 2 -1.</_>
                <_>
                  3 19 4 1 2.</_></rects>
              <tilted>0</tilted></feature>
            <threshold>-1.1353409718140028e-005</threshold>
            <left_val>0.7125874757766724</left_val>
            <right_val>-0.8357238769531250</right_val></_></_>
        <_>
          <_>
            <feature>
              <rects>
                <_>
                  21 21 2 2 -1.</_>
                <_>
                  21 21 1 2 2.</_></rects>
              <tilted>0</tilted></feature>
            <threshold>1.2425370186974760e-005</threshold>
            <left_val>-0.5244529843330383</left_val>
            <right_val>0.5284003019332886</right_val></_></_>
        <_>
          <_>
            <feature>
              <rects>
                <_>
                  1 10 20 5 -1.</_>
                <_>
                  6 10 10 5 2.</_></rects>
              <tilted>0</tilted></feature>
            <threshold>-4.6877781860530376e-003</threshold>
            <left_val>0.8758398890495300</left_val>
            <right_val>-0.7163308858871460</right_val></_></_>
        <_>
          <_>
            <feature>
              <rects>
                <_>
                  20 3 2 9 -1.</_>
                <_>
                  20 3 1 9 2.</_></rects>
              <tilted>0</tilted></feature>
            <threshold>5.8020781580125913e-005</threshold>
            <left_val>-0.4722650945186615</left_val>
            <right_val>0.6744052171707153</right_val></_></_>
        <_>
          <_>
            <feature>
              <rects>
                <_>
                  6 4 1 9 -1.</_>
                <_>
                  6 7 1 3 3.</_></rects>
              <tilted>0</tilted></feature>
            <threshold>2.1304589608917013e-005</threshold>
            <left_val>-0.7849208712577820</left_val>
            <right_val>0.7168248295783997</right_val></_></_>
        <_>
          <_>
            <feature>
              <rects>
                <_>
                  9 21 14 2 -1.</_>
                <_>
                  9 21 7 2 2.</_></rects>
              <tilted>0</tilted></feature>
            <threshold>2.6227649868815206e-005</threshold>
            <left_val>-0.8092523217201233</left_val>
            <right_val>0.3974506855010986</right_val></_></_>
        <_>
          <_>
            <feature>
              <rects>
                <_>
                  2 21 10 3 -1.</_>
                <_>
                  7 21 5 3 2.</_></rects>
              <tilted>0</tilted></feature>
            <threshold>2.5264511350542307e-004</threshold>
            <left_val>-0.9660480022430420</left_val>
            <right_val>0.7038915753364563</right_val></_></_>
        <_>
          <_>
            <feature>
              <rects>
                <_>
                  19 7 5 3 -1.</_>
                <_>
                  18 8 5 1 3.</_></rects>
              <tilted>1</tilted></feature>
            <threshold>-8.7927772256080061e-005</threshold>
            <left_val>0.2448703050613403</left_val>
            <right_val>-0.9575932025909424</right_val></_></_>
        <_>
          <_>
            <feature>
              <rects>
                <_>
                  4 8 9 3 -1.</_>
                <_>
                  7 9 3 1 9.</_></rects>
              <tilted>0</tilted></feature>
            <threshold>-1.4425210247281939e-004</threshold>
            <left_val>0.8396406769752502</left_val>
            <right_val>-0.8240302801132202</right_val></_></_>
        <_>
          <_>
            <feature>
              <rects>
                <_>
                  11 6 8 7 -1.</_>
                <_>
                  13 6 4 7 2.</_></rects>
              <tilted>0</tilted></feature>
            <threshold>-5.7286149822175503e-003</threshold>
            <left_val>0.7542083263397217</left_val>
            <right_val>-0.4135609865188599</right_val></_></_>
        <_>
          <_>
            <feature>
              <rects>
                <_>
                  9 10 6 2 -1.</_>
                <_>
                  9 10 3 2 2.</_></rects>
              <tilted>1</tilted></feature>
            <threshold>3.1956878956407309e-005</threshold>
            <left_val>-0.5699418187141419</left_val>
            <right_val>0.8729429841041565</right_val></_></_>
        <_>
          <_>
            <feature>
              <rects>
                <_>
                  12 7 8 5 -1.</_>
                <_>
                  12 7 4 5 2.</_></rects>
              <tilted>0</tilted></feature>
            <threshold>1.7163339362014085e-004</threshold>
            <left_val>-0.6963691711425781</left_val>
            <right_val>0.4764587879180908</right_val></_></_>
        <_>
          <_>
            <feature>
              <rects>
                <_>
                  5 9 4 3 -1.</_>
                <_>
                  7 9 2 3 2.</_></rects>
              <tilted>0</tilted></feature>
            <threshold>3.5624980228021741e-005</threshold>
            <left_val>-0.9142469167709351</left_val>
            <right_val>0.7377306818962097</right_val></_></_>
        <_>
          <_>
            <feature>
              <rects>
                <_>
                  7 1 12 18 -1.</_>
                <_>
                  11 7 4 6 9.</_></rects>
              <tilted>0</tilted></feature>
            <threshold>-5.9709688648581505e-003</threshold>
            <left_val>0.8772283792495728</left_val>
            <right_val>-0.9249991774559021</right_val></_></_>
        <_>
          <_>
            <feature>
              <rects>
                <_>
                  7 20 6 4 -1.</_>
                <_>
                  7 20 3 2 2.</_>
                <_>
                  10 22 3 2 2.</_></rects>
              <tilted>0</tilted></feature>
            <threshold>-2.9425460525089875e-005</threshold>
            <left_val>0.8551130294799805</left_val>
            <right_val>-0.8522968292236328</right_val></_></_>
        <_>
          <_>
            <feature>
              <rects>
                <_>
                  18 2 3 3 -1.</_>
                <_>
                  19 3 1 1 9.</_></rects>
              <tilted>0</tilted></feature>
            <threshold>-2.8949429179192521e-005</threshold>
            <left_val>0.6404740214347839</left_val>
            <right_val>-0.3701609969139099</right_val></_></_>
        <_>
          <_>
            <feature>
              <rects>
                <_>
                  8 0 2 3 -1.</_>
                <_>
                  8 1 2 1 3.</_></rects>
              <tilted>0</tilted></feature>
            <threshold>-4.7047760745044798e-005</threshold>
            <left_val>0.8608121871948242</left_val>
            <right_val>-0.5318763852119446</right_val></_></_>
        <_>
          <_>
            <feature>
              <rects>
                <_>
                  13 0 1 2 -1.</_>
                <_>
                  13 1 1 1 2.</_></rects>
              <tilted>0</tilted></feature>
            <threshold>1.2573209824040532e-004</threshold>
            <left_val>-0.3314620852470398</left_val>
            <right_val>0.6999617815017700</right_val></_></_>
        <_>
          <_>
            <feature>
              <rects>
                <_>
                  0 22 4 2 -1.</_>
                <_>
                  2 22 2 2 2.</_></rects>
              <tilted>0</tilted></feature>
            <threshold>5.3119580115890130e-005</threshold>
            <left_val>-0.6894553899765015</left_val>
            <right_val>0.8586413264274597</right_val></_></_>
        <_>
          <_>
            <feature>
              <rects>
                <_>
                  14 5 2 2 -1.</_>
                <_>
                  14 6 2 1 2.</_></rects>
              <tilted>0</tilted></feature>
            <threshold>1.8005870515480638e-005</threshold>
            <left_val>-0.8532149195671082</left_val>
            <right_val>0.5969886183738709</right_val></_></_>
        <_>
          <_>
            <feature>
              <rects>
                <_>
                  0 2 3 2 -1.</_>
                <_>
                  0 3 3 1 2.</_></rects>
              <tilted>0</tilted></feature>
            <threshold>2.3675229385844432e-005</threshold>
            <left_val>-0.9374504089355469</left_val>
            <right_val>0.8232392072677612</right_val></_></_>
        <_>
          <_>
            <feature>
              <rects>
                <_>
                  16 1 3 8 -1.</_>
                <_>
                  16 5 3 4 2.</_></rects>
              <tilted>0</tilted></feature>
            <threshold>-2.8708400204777718e-003</threshold>
            <left_val>0.6230025887489319</left_val>
            <right_val>-0.9542722105979919</right_val></_></_>
        <_>
          <_>
            <feature>
              <rects>
                <_>
                  0 11 3 12 -1.</_>
                <_>
                  1 15 1 4 9.</_></rects>
              <tilted>0</tilted></feature>
            <threshold>-1.0084330569952726e-003</threshold>
            <left_val>0.8193668127059937</left_val>
            <right_val>-0.9156417250633240</right_val></_></_>
        <_>
          <_>
            <feature>
              <rects>
                <_>
                  10 7 4 4 -1.</_>
                <_>
                  10 8 4 2 2.</_></rects>
              <tilted>0</tilted></feature>
            <threshold>1.3113820386934094e-005</threshold>
            <left_val>-0.7262738943099976</left_val>
            <right_val>0.8237628936767578</right_val></_></_>
        <_>
          <_>
            <feature>
              <rects>
                <_>
                  7 20 4 4 -1.</_>
                <_>
                  7 20 2 2 2.</_>
                <_>
                  9 22 2 2 2.</_></rects>
              <tilted>0</tilted></feature>
            <threshold>1.1353409718140028e-005</threshold>
            <left_val>-0.8893250226974487</left_val>
            <right_val>0.8304144144058228</right_val></_></_>
        <_>
          <_>
            <feature>
              <rects>
                <_>
                  8 0 10 21 -1.</_>
                <_>
                  8 7 10 7 3.</_></rects>
              <tilted>0</tilted></feature>
            <threshold>3.1506290542893112e-004</threshold>
            <left_val>-0.9520606994628906</left_val>
            <right_val>0.7017678022384644</right_val></_></_>
        <_>
          <_>
            <feature>
              <rects>
                <_>
                  10 8 14 2 -1.</_>
                <_>
                  10 8 7 2 2.</_></rects>
              <tilted>1</tilted></feature>
            <threshold>-6.1864848248660564e-004</threshold>
            <left_val>1.</left_val>
            <right_val>-1.</right_val></_></_>
        <_>
          <_>
            <feature>
              <rects>
                <_>
                  22 19 2 4 -1.</_>
                <_>
                  22 21 2 2 2.</_></rects>
              <tilted>0</tilted></feature>
            <threshold>-5.5140179028967395e-005</threshold>
            <left_val>0.9754049777984619</left_val>
            <right_val>-0.9434555768966675</right_val></_></_>
        <_>
          <_>
            <feature>
              <rects>
                <_>
                  0 0 3 9 -1.</_>
                <_>
                  1 3 1 3 9.</_></rects>
              <tilted>0</tilted></feature>
            <threshold>2.3038330255076289e-005</threshold>
            <left_val>-0.8859465718269348</left_val>
            <right_val>0.8605291247367859</right_val></_></_>
        <_>
          <_>
            <feature>
              <rects>
                <_>
                  0 2 24 6 -1.</_>
                <_>
                  6 2 12 6 2.</_></rects>
              <tilted>0</tilted></feature>
            <threshold>6.9150712806731462e-004</threshold>
            <left_val>-0.9656953811645508</left_val>
            <right_val>0.8806254863739014</right_val></_></_>
        <_>
          <_>
            <feature>
              <rects>
                <_>
                  2 23 9 1 -1.</_>
                <_>
                  5 23 3 1 3.</_></rects>
              <tilted>0</tilted></feature>
            <threshold>1.6903529467526823e-004</threshold>
            <left_val>-1.</left_val>
            <right_val>1.0000519752502441</right_val></_></_>
        <_>
          <_>
            <feature>
              <rects>
                <_>
                  22 0 2 1 -1.</_>
                <_>
                  22 0 1 1 2.</_></rects>
              <tilted>0</tilted></feature>
            <threshold>0.</threshold>
            <left_val>0.</left_val>
            <right_val>-1.</right_val></_></_>
        <_>
          <_>
            <feature>
              <rects>
                <_>
                  2 4 2 16 -1.</_>
                <_>
                  2 8 2 8 2.</_></rects>
              <tilted>0</tilted></feature>
            <threshold>5.3261468565324321e-005</threshold>
            <left_val>-0.9724113941192627</left_val>
            <right_val>0.9315060973167419</right_val></_></_>
        <_>
          <_>
            <feature>
              <rects>
                <_>
                  23 0 1 12 -1.</_>
                <_>
                  23 3 1 6 2.</_></rects>
              <tilted>0</tilted></feature>
            <threshold>1.4544619480147958e-003</threshold>
            <left_val>-0.9922196269035339</left_val>
            <right_val>1.</right_val></_></_>
        <_>
          <_>
            <feature>
              <rects>
                <_>
                  0 0 2 1 -1.</_>
                <_>
                  1 0 1 1 2.</_></rects>
              <tilted>0</tilted></feature>
            <threshold>0.</threshold>
            <left_val>0.</left_val>
            <right_val>-1.</right_val></_></_>
        <_>
          <_>
            <feature>
              <rects>
                <_>
                  20 6 3 2 -1.</_>
                <_>
                  21 7 1 2 3.</_></rects>
              <tilted>1</tilted></feature>
            <threshold>-9.4358692876994610e-005</threshold>
            <left_val>1.</left_val>
            <right_val>-0.9307085871696472</right_val></_></_>
        <_>
          <_>
            <feature>
              <rects>
                <_>
                  3 0 2 3 -1.</_>
                <_>
                  3 0 1 3 2.</_></rects>
              <tilted>1</tilted></feature>
            <threshold>-1.1008600267814472e-004</threshold>
            <left_val>0.9643111824989319</left_val>
            <right_val>-0.8706310987472534</right_val></_></_>
        <_>
          <_>
            <feature>
              <rects>
                <_>
                  21 21 2 3 -1.</_>
                <_>
                  21 22 2 1 3.</_></rects>
              <tilted>0</tilted></feature>
            <threshold>-2.5596220439183526e-005</threshold>
            <left_val>0.7897846102714539</left_val>
            <right_val>-0.4616706967353821</right_val></_></_>
        <_>
          <_>
            <feature>
              <rects>
                <_>
                  9 20 6 3 -1.</_>
                <_>
                  11 20 2 3 3.</_></rects>
              <tilted>0</tilted></feature>
            <threshold>-1.6564119505346753e-005</threshold>
            <left_val>0.9207124114036560</left_val>
            <right_val>-0.6739581227302551</right_val></_></_>
        <_>
          <_>
            <feature>
              <rects>
                <_>
                  10 11 4 8 -1.</_>
                <_>
                  10 11 2 8 2.</_></rects>
              <tilted>0</tilted></feature>
            <threshold>-1.6324069292750210e-004</threshold>
            <left_val>0.9934328794479370</left_val>
            <right_val>-0.4422327876091003</right_val></_></_>
        <_>
          <_>
            <feature>
              <rects>
                <_>
                  0 10 8 12 -1.</_>
                <_>
                  0 16 8 6 2.</_></rects>
              <tilted>0</tilted></feature>
            <threshold>4.1541390237398446e-004</threshold>
            <left_val>-0.3625749945640564</left_val>
            <right_val>0.9523195028305054</right_val></_></_>
        <_>
          <_>
            <feature>
              <rects>
                <_>
                  7 12 10 4 -1.</_>
                <_>
                  7 14 10 2 2.</_></rects>
              <tilted>0</tilted></feature>
            <threshold>-7.6936812547501177e-005</threshold>
            <left_val>0.7520974278450012</left_val>
            <right_val>-0.8268666863441467</right_val></_></_>
        <_>
          <_>
            <feature>
              <rects>
                <_>
                  12 2 4 12 -1.</_>
                <_>
                  13 3 2 12 2.</_></rects>
              <tilted>1</tilted></feature>
            <threshold>-1.5095260459929705e-004</threshold>
            <left_val>0.8141806721687317</left_val>
            <right_val>-0.6673439741134644</right_val></_></_>
        <_>
          <_>
            <feature>
              <rects>
                <_>
                  13 4 4 4 -1.</_>
                <_>
                  14 5 2 4 2.</_></rects>
              <tilted>1</tilted></feature>
            <threshold>-1.8395850202068686e-003</threshold>
            <left_val>0.6349840164184570</left_val>
            <right_val>-0.1575195044279099</right_val></_></_>
        <_>
          <_>
            <feature>
              <rects>
                <_>
                  11 4 4 4 -1.</_>
                <_>
                  10 5 4 2 2.</_></rects>
              <tilted>1</tilted></feature>
            <threshold>1.6931120626395568e-005</threshold>
            <left_val>-0.5886480212211609</left_val>
            <right_val>0.8249704837799072</right_val></_></_>
        <_>
          <_>
            <feature>
              <rects>
                <_>
                  19 21 5 3 -1.</_>
                <_>
                  19 22 5 1 3.</_></rects>
              <tilted>0</tilted></feature>
            <threshold>4.0895021811593324e-005</threshold>
            <left_val>-0.5329157114028931</left_val>
            <right_val>0.4262121021747589</right_val></_></_>
        <_>
          <_>
            <feature>
              <rects>
                <_>
                  3 20 13 4 -1.</_>
                <_>
                  3 21 13 2 2.</_></rects>
              <tilted>0</tilted></feature>
            <threshold>-4.3499348976183683e-005</threshold>
            <left_val>0.7876965999603272</left_val>
            <right_val>-0.8561453819274902</right_val></_></_>
        <_>
          <_>
            <feature>
              <rects>
                <_>
                  15 14 6 4 -1.</_>
                <_>
                  18 14 3 2 2.</_>
                <_>
                  15 16 3 2 2.</_></rects>
              <tilted>0</tilted></feature>
            <threshold>-2.3315400540013798e-005</threshold>
            <left_val>0.4264811873435974</left_val>
            <right_val>-0.4723185002803803</right_val></_></_>
        <_>
          <_>
            <feature>
              <rects>
                <_>
                  3 14 6 4 -1.</_>
                <_>
                  3 14 3 2 2.</_>
                <_>
                  6 16 3 2 2.</_></rects>
              <tilted>0</tilted></feature>
            <threshold>-1.5200010238913819e-005</threshold>
            <left_val>0.7397034168243408</left_val>
            <right_val>-0.5815771818161011</right_val></_></_>
        <_>
          <_>
            <feature>
              <rects>
                <_>
                  15 1 6 13 -1.</_>
                <_>
                  17 3 2 13 3.</_></rects>
              <tilted>1</tilted></feature>
            <threshold>-0.0195723492652178</threshold>
            <left_val>0.7620149850845337</left_val>
            <right_val>-0.1570692062377930</right_val></_></_>
        <_>
          <_>
            <feature>
              <rects>
                <_>
                  3 7 7 3 -1.</_>
                <_>
                  2 8 7 1 3.</_></rects>
              <tilted>1</tilted></feature>
            <threshold>-1.1802309891209006e-003</threshold>
            <left_val>0.8571873903274536</left_val>
            <right_val>-0.3673768937587738</right_val></_></_>
        <_>
          <_>
            <feature>
              <rects>
                <_>
                  18 2 6 3 -1.</_>
                <_>
                  17 3 6 1 3.</_></rects>
              <tilted>1</tilted></feature>
            <threshold>-5.9135020710527897e-003</threshold>
            <left_val>-0.5535706877708435</left_val>
            <right_val>0.1859357059001923</right_val></_></_>
        <_>
          <_>
            <feature>
              <rects>
                <_>
                  10 10 4 2 -1.</_>
                <_>
                  10 10 4 1 2.</_></rects>
              <tilted>1</tilted></feature>
            <threshold>-1.6341129958163947e-004</threshold>
            <left_val>0.6499627232551575</left_val>
            <right_val>-0.4488281011581421</right_val></_></_>
        <_>
          <_>
            <feature>
              <rects>
                <_>
                  14 10 3 2 -1.</_>
                <_>
                  15 11 1 2 3.</_></rects>
              <tilted>1</tilted></feature>
            <threshold>5.3003919310867786e-004</threshold>
            <left_val>-0.1263024061918259</left_val>
            <right_val>0.3788379132747650</right_val></_></_>
        <_>
          <_>
            <feature>
              <rects>
                <_>
                  10 10 2 3 -1.</_>
                <_>
                  9 11 2 1 3.</_></rects>
              <tilted>1</tilted></feature>
            <threshold>-4.9033911636797711e-005</threshold>
            <left_val>0.6360573172569275</left_val>
            <right_val>-0.5016126036643982</right_val></_></_>
        <_>
          <_>
            <feature>
              <rects>
                <_>
                  15 0 6 2 -1.</_>
                <_>
                  15 1 6 1 2.</_></rects>
              <tilted>0</tilted></feature>
            <threshold>-6.7467062035575509e-004</threshold>
            <left_val>0.4651353061199188</left_val>
            <right_val>-0.1108955964446068</right_val></_></_>
        <_>
          <_>
            <feature>
              <rects>
                <_>
                  3 0 6 2 -1.</_>
                <_>
                  3 1 6 1 2.</_></rects>
              <tilted>0</tilted></feature>
            <threshold>9.1256632003933191e-005</threshold>
            <left_val>-0.5423886179924011</left_val>
            <right_val>0.5848022103309631</right_val></_></_>
        <_>
          <_>
            <feature>
              <rects>
                <_>
                  21 12 1 10 -1.</_>
                <_>
                  21 12 1 5 2.</_></rects>
              <tilted>1</tilted></feature>
            <threshold>-0.0137845100834966</threshold>
            <left_val>0.4699167907238007</left_val>
            <right_val>-0.3009470105171204</right_val></_></_>
        <_>
          <_>
            <feature>
              <rects>
                <_>
                  9 9 1 9 -1.</_>
                <_>
                  6 12 1 3 3.</_></rects>
              <tilted>1</tilted></feature>
            <threshold>-2.7674320153892040e-004</threshold>
            <left_val>0.6258563995361328</left_val>
            <right_val>-0.4454576075077057</right_val></_></_>
        <_>
          <_>
            <feature>
              <rects>
                <_>
                  19 11 4 4 -1.</_>
                <_>
                  19 11 2 4 2.</_></rects>
              <tilted>0</tilted></feature>
            <threshold>-3.1025540083646774e-003</threshold>
            <left_val>0.3695344030857086</left_val>
            <right_val>-0.1032946035265923</right_val></_></_>
        <_>
          <_>
            <feature>
              <rects>
                <_>
                  1 11 4 4 -1.</_>
                <_>
                  3 11 2 4 2.</_></rects>
              <tilted>0</tilted></feature>
            <threshold>1.5200010238913819e-005</threshold>
            <left_val>-0.5174288749694824</left_val>
            <right_val>0.4801276028156281</right_val></_></_>
        <_>
          <_>
            <feature>
              <rects>
                <_>
                  9 0 6 10 -1.</_>
                <_>
                  12 0 3 5 2.</_>
                <_>
                  9 5 3 5 2.</_></rects>
              <tilted>0</tilted></feature>
            <threshold>-1.1123129661427811e-004</threshold>
            <left_val>0.5345671772956848</left_val>
            <right_val>-0.5626946091651917</right_val></_></_>
        <_>
          <_>
            <feature>
              <rects>
                <_>
                  8 1 8 15 -1.</_>
                <_>
                  10 1 4 15 2.</_></rects>
              <tilted>0</tilted></feature>
            <threshold>0.0108022997155786</threshold>
            <left_val>-0.3201135098934174</left_val>
            <right_val>0.7966868281364441</right_val></_></_>
        <_>
          <_>
            <feature>
              <rects>
                <_>
                  17 8 4 4 -1.</_>
                <_>
                  18 9 2 4 2.</_></rects>
              <tilted>1</tilted></feature>
            <threshold>-4.1193688957719132e-005</threshold>
            <left_val>0.3091365098953247</left_val>
            <right_val>-0.4185343086719513</right_val></_></_>
        <_>
          <_>
            <feature>
              <rects>
                <_>
                  4 19 12 2 -1.</_>
                <_>
                  4 19 6 1 2.</_>
                <_>
                  10 20 6 1 2.</_></rects>
              <tilted>0</tilted></feature>
            <threshold>-1.0652290256984998e-005</threshold>
            <left_val>0.6344336271286011</left_val>
            <right_val>-0.4764601886272430</right_val></_></_>
        <_>
          <_>
            <feature>
              <rects>
                <_>
                  7 2 12 22 -1.</_>
                <_>
                  11 2 4 22 3.</_></rects>
              <tilted>0</tilted></feature>
            <threshold>-0.0494261384010315</threshold>
            <left_val>0.5622590780258179</left_val>
            <right_val>-0.1871419996023178</right_val></_></_>
        <_>
          <_>
            <feature>
              <rects>
                <_>
                  10 1 13 2 -1.</_>
                <_>
                  10 1 13 1 2.</_></rects>
              <tilted>1</tilted></feature>
            <threshold>2.9224469326436520e-003</threshold>
            <left_val>-0.3451496064662933</left_val>
            <right_val>0.6696404814720154</right_val></_></_>
        <_>
          <_>
            <feature>
              <rects>
                <_>
                  11 21 7 2 -1.</_>
                <_>
                  11 22 7 1 2.</_></rects>
              <tilted>0</tilted></feature>
            <threshold>-1.0793560068123043e-004</threshold>
            <left_val>0.3755494058132172</left_val>
            <right_val>-0.5319582223892212</right_val></_></_>
        <_>
          <_>
            <feature>
              <rects>
                <_>
                  0 20 20 4 -1.</_>
                <_>
                  0 22 20 2 2.</_></rects>
              <tilted>0</tilted></feature>
            <threshold>0.0213835202157497</threshold>
            <left_val>-0.2946645915508270</left_val>
            <right_val>0.7871227860450745</right_val></_></_>
        <_>
          <_>
            <feature>
              <rects>
                <_>
                  12 20 6 4 -1.</_>
                <_>
                  12 22 6 2 2.</_></rects>
              <tilted>0</tilted></feature>
            <threshold>-2.7692169533111155e-004</threshold>
            <left_val>0.2892513871192932</left_val>
            <right_val>-0.5026335120201111</right_val></_></_>
        <_>
          <_>
            <feature>
              <rects>
                <_>
                  6 21 12 2 -1.</_>
                <_>
                  6 21 6 1 2.</_>
                <_>
                  12 22 6 1 2.</_></rects>
              <tilted>0</tilted></feature>
            <threshold>3.1375020626001060e-005</threshold>
            <left_val>-0.4392209053039551</left_val>
            <right_val>0.6585534214973450</right_val></_></_>
        <_>
          <_>
            <feature>
              <rects>
                <_>
                  1 13 22 2 -1.</_>
                <_>
                  12 13 11 1 2.</_>
                <_>
                  1 14 11 1 2.</_></rects>
              <tilted>0</tilted></feature>
            <threshold>5.1942781283287331e-005</threshold>
            <left_val>-0.5896360278129578</left_val>
            <right_val>0.6753224134445190</right_val></_></_>
        <_>
          <_>
            <feature>
              <rects>
                <_>
                  10 3 4 8 -1.</_>
                <_>
                  10 5 4 4 2.</_></rects>
              <tilted>0</tilted></feature>
            <threshold>2.1511370505322702e-005</threshold>
            <left_val>-0.7909845709800720</left_val>
            <right_val>0.6470549106597900</right_val></_></_>
        <_>
          <_>
            <feature>
              <rects>
                <_>
                  10 5 10 18 -1.</_>
                <_>
                  15 5 5 9 2.</_>
                <_>
                  10 14 5 9 2.</_></rects>
              <tilted>0</tilted></feature>
            <threshold>-2.4937489069998264e-004</threshold>
            <left_val>0.3338198065757752</left_val>
            <right_val>-0.8134288787841797</right_val></_></_>
        <_>
          <_>
            <feature>
              <rects>
                <_>
                  1 6 6 7 -1.</_>
                <_>
                  4 6 3 7 2.</_></rects>
              <tilted>0</tilted></feature>
            <threshold>2.3675229385844432e-005</threshold>
            <left_val>-0.7586817145347595</left_val>
            <right_val>0.7349669933319092</right_val></_></_>
        <_>
          <_>
            <feature>
              <rects>
                <_>
                  6 3 18 12 -1.</_>
                <_>
                  12 7 6 4 9.</_></rects>
              <tilted>0</tilted></feature>
            <threshold>-1.3792209792882204e-003</threshold>
            <left_val>0.4547689855098724</left_val>
            <right_val>-0.7775868177413940</right_val></_></_>
        <_>
          <_>
            <feature>
              <rects>
                <_>
                  12 2 12 6 -1.</_>
                <_>
                  16 6 4 6 3.</_></rects>
              <tilted>1</tilted></feature>
            <threshold>3.5012110602110624e-003</threshold>
            <left_val>-0.7263761758804321</left_val>
            <right_val>0.8454617261886597</right_val></_></_>
        <_>
          <_>
            <feature>
              <rects>
                <_>
                  6 13 16 2 -1.</_>
                <_>
                  14 13 8 1 2.</_>
                <_>
                  6 14 8 1 2.</_></rects>
              <tilted>0</tilted></feature>
            <threshold>3.5048851714236662e-005</threshold>
            <left_val>-0.7467365860939026</left_val>
            <right_val>0.5282109975814819</right_val></_></_>
        <_>
          <_>
            <feature>
              <rects>
                <_>
                  3 13 16 2 -1.</_>
                <_>
                  3 13 8 1 2.</_>
                <_>
                  11 14 8 1 2.</_></rects>
              <tilted>0</tilted></feature>
            <threshold>4.7350458771688864e-005</threshold>
            <left_val>-0.9545518159866333</left_val>
            <right_val>0.9237223267555237</right_val></_></_></trees>
      <stage_threshold>-2.9588139057159424</stage_threshold>
      <parent>1</parent>
      <next>-1</next></_>
    <_>
      <trees>
        <_>
          <_>
            <feature>
              <rects>
                <_>
                  0 0 2 4 -1.</_>
                <_>
                  0 2 2 2 2.</_></rects>
              <tilted>0</tilted></feature>
            <threshold>1.3711350220546592e-005</threshold>
            <left_val>-0.6544793844223023</left_val>
            <right_val>0.6538606286048889</right_val></_></_>
        <_>
          <_>
            <feature>
              <rects>
                <_>
                  22 2 2 20 -1.</_>
                <_>
                  22 7 2 10 2.</_></rects>
              <tilted>0</tilted></feature>
            <threshold>1.6534109818167053e-005</threshold>
            <left_val>-0.7538955807685852</left_val>
            <right_val>0.4578064084053040</right_val></_></_>
        <_>
          <_>
            <feature>
              <rects>
                <_>
                  2 21 4 2 -1.</_>
                <_>
                  4 21 2 2 2.</_></rects>
              <tilted>0</tilted></feature>
            <threshold>1.3301560102263466e-005</threshold>
            <left_val>-0.8301547169685364</left_val>
            <right_val>0.4869352877140045</right_val></_></_>
        <_>
          <_>
            <feature>
              <rects>
                <_>
                  17 20 3 4 -1.</_>
                <_>
                  17 21 3 2 2.</_></rects>
              <tilted>0</tilted></feature>
            <threshold>-1.1353409718140028e-005</threshold>
            <left_val>0.4400466978549957</left_val>
            <right_val>-0.8568761944770813</right_val></_></_>
        <_>
          <_>
            <feature>
              <rects>
                <_>
                  0 14 4 4 -1.</_>
                <_>
                  0 15 4 2 2.</_></rects>
              <tilted>0</tilted></feature>
            <threshold>1.0652290256984998e-005</threshold>
            <left_val>-0.6464452743530273</left_val>
            <right_val>0.7214909195899963</right_val></_></_>
        <_>
          <_>
            <feature>
              <rects>
                <_>
                  20 14 4 4 -1.</_>
                <_>
                  20 15 4 2 2.</_></rects>
              <tilted>0</tilted></feature>
            <threshold>-1.2662099834415130e-005</threshold>
            <left_val>0.4103058874607086</left_val>
            <right_val>-0.7476636171340942</right_val></_></_>
        <_>
          <_>
            <feature>
              <rects>
                <_>
                  2 2 1 8 -1.</_>
                <_>
                  2 4 1 4 2.</_></rects>
              <tilted>0</tilted></feature>
            <threshold>1.1149400052090641e-005</threshold>
            <left_val>-0.6523336768150330</left_val>
            <right_val>0.7116587758064270</right_val></_></_>
        <_>
          <_>
            <feature>
              <rects>
                <_>
                  18 8 4 9 -1.</_>
                <_>
                  18 11 4 3 3.</_></rects>
              <tilted>0</tilted></feature>
            <threshold>1.4787139662075788e-005</threshold>
            <left_val>-0.7435668110847473</left_val>
            <right_val>0.4210853874683380</right_val></_></_>
        <_>
          <_>
            <feature>
              <rects>
                <_>
                  0 17 9 4 -1.</_>
                <_>
                  0 18 9 2 2.</_></rects>
              <tilted>0</tilted></feature>
            <threshold>2.2298800104181282e-005</threshold>
            <left_val>-0.8516634106636047</left_val>
            <right_val>0.6895340085029602</right_val></_></_>
        <_>
          <_>
            <feature>
              <rects>
                <_>
                  17 5 4 12 -1.</_>
                <_>
                  17 8 4 6 2.</_></rects>
              <tilted>0</tilted></feature>
            <threshold>9.7510858904570341e-004</threshold>
            <left_val>-0.8859837055206299</left_val>
            <right_val>0.4460783898830414</right_val></_></_>
        <_>
          <_>
            <feature>
              <rects>
                <_>
                  12 10 6 5 -1.</_>
                <_>
                  12 10 3 5 2.</_></rects>
              <tilted>1</tilted></feature>
            <threshold>-1.1235129932174459e-004</threshold>
            <left_val>0.7697743177413940</left_val>
            <right_val>-0.9582732915878296</right_val></_></_>
        <_>
          <_>
            <feature>
              <rects>
                <_>
                  15 11 4 6 -1.</_>
                <_>
                  15 11 4 3 2.</_></rects>
              <tilted>1</tilted></feature>
            <threshold>2.8811668744310737e-004</threshold>
            <left_val>-0.7241929769515991</left_val>
            <right_val>0.5766286253929138</right_val></_></_>
        <_>
          <_>
            <feature>
              <rects>
                <_>
                  4 10 16 5 -1.</_>
                <_>
                  12 10 8 5 2.</_></rects>
              <tilted>0</tilted></feature>
            <threshold>-1.5575450379401445e-004</threshold>
            <left_val>0.9275590181350708</left_val>
            <right_val>-0.8931146860122681</right_val></_></_>
        <_>
          <_>
            <feature>
              <rects>
                <_>
                  4 5 16 4 -1.</_>
                <_>
                  4 5 8 4 2.</_></rects>
              <tilted>0</tilted></feature>
            <threshold>-2.5393959367647767e-004</threshold>
            <left_val>0.8464934229850769</left_val>
            <right_val>-0.7516766190528870</right_val></_></_>
        <_>
          <_>
            <feature>
              <rects>
                <_>
                  8 1 16 2 -1.</_>
                <_>
                  8 1 16 1 2.</_></rects>
              <tilted>1</tilted></feature>
            <threshold>-2.5084849767154083e-005</threshold>
            <left_val>0.8370215296745300</left_val>
            <right_val>-0.5965995192527771</right_val></_></_>
        <_>
          <_>
            <feature>
              <rects>
                <_>
                  12 13 3 8 -1.</_>
                <_>
                  10 15 3 4 2.</_></rects>
              <tilted>1</tilted></feature>
            <threshold>-3.7276098737493157e-005</threshold>
            <left_val>0.4852445125579834</left_val>
            <right_val>-0.2452308982610703</right_val></_></_>
        <_>
          <_>
            <feature>
              <rects>
                <_>
                  0 15 12 2 -1.</_>
                <_>
                  6 15 6 2 2.</_></rects>
              <tilted>0</tilted></feature>
            <threshold>1.1555210221558809e-003</threshold>
            <left_val>-0.4516040980815888</left_val>
            <right_val>0.7694203853607178</right_val></_></_>
        <_>
          <_>
            <feature>
              <rects>
                <_>
                  17 0 1 12 -1.</_>
                <_>
                  17 0 1 6 2.</_></rects>
              <tilted>1</tilted></feature>
            <threshold>2.6523909764364362e-004</threshold>
            <left_val>-0.5362560153007507</left_val>
            <right_val>0.5677111148834229</right_val></_></_>
        <_>
          <_>
            <feature>
              <rects>
                <_>
                  11 0 8 3 -1.</_>
                <_>
                  13 2 4 3 2.</_></rects>
              <tilted>1</tilted></feature>
            <threshold>-4.1424220398766920e-005</threshold>
            <left_val>0.7067298293113709</left_val>
            <right_val>-0.8361452221870422</right_val></_></_>
        <_>
          <_>
            <feature>
              <rects>
                <_>
                  12 9 6 6 -1.</_>
                <_>
                  12 9 6 3 2.</_></rects>
              <tilted>1</tilted></feature>
            <threshold>-2.9193510999903083e-004</threshold>
            <left_val>0.5784760713577271</left_val>
            <right_val>-0.3671959042549133</right_val></_></_>
        <_>
          <_>
            <feature>
              <rects>
                <_>
                  4 5 10 16 -1.</_>
                <_>
                  4 13 10 8 2.</_></rects>
              <tilted>0</tilted></feature>
            <threshold>-1.9161459931638092e-005</threshold>
            <left_val>0.7642570734024048</left_val>
            <right_val>-0.5764247179031372</right_val></_></_>
        <_>
          <_>
            <feature>
              <rects>
                <_>
                  15 0 1 12 -1.</_>
                <_>
                  15 0 1 6 2.</_></rects>
              <tilted>1</tilted></feature>
            <threshold>0.0185220204293728</threshold>
            <left_val>-0.0843076333403587</left_val>
            <right_val>0.7929049730300903</right_val></_></_>
        <_>
          <_>
            <feature>
              <rects>
                <_>
                  6 4 2 4 -1.</_>
                <_>
                  6 6 2 2 2.</_></rects>
              <tilted>0</tilted></feature>
            <threshold>7.7705743024125695e-005</threshold>
            <left_val>-0.6590226292610169</left_val>
            <right_val>0.5385376811027527</right_val></_></_>
        <_>
          <_>
            <feature>
              <rects>
                <_>
                  15 0 1 12 -1.</_>
                <_>
                  15 0 1 6 2.</_></rects>
              <tilted>1</tilted></feature>
            <threshold>-1.9445120415184647e-004</threshold>
            <left_val>0.1833871006965637</left_val>
            <right_val>-0.6770911216735840</right_val></_></_>
        <_>
          <_>
            <feature>
              <rects>
                <_>
                  9 0 12 1 -1.</_>
                <_>
                  9 0 6 1 2.</_></rects>
              <tilted>1</tilted></feature>
            <threshold>4.3499348976183683e-005</threshold>
            <left_val>-0.5388491749763489</left_val>
            <right_val>0.8647221922874451</right_val></_></_>
        <_>
          <_>
            <feature>
              <rects>
                <_>
                  9 7 10 16 -1.</_>
                <_>
                  14 7 5 8 2.</_>
                <_>
                  9 15 5 8 2.</_></rects>
              <tilted>0</tilted></feature>
            <threshold>1.0767549974843860e-003</threshold>
            <left_val>-0.6517909169197083</left_val>
            <right_val>0.4425706863403320</right_val></_></_>
        <_>
          <_>
            <feature>
              <rects>
                <_>
                  10 11 2 7 -1.</_>
                <_>
                  10 11 1 7 2.</_></rects>
              <tilted>1</tilted></feature>
            <threshold>1.1257710139034316e-004</threshold>
            <left_val>-0.8398457169532776</left_val>
            <right_val>0.7277293205261231</right_val></_></_>
        <_>
          <_>
            <feature>
              <rects>
                <_>
                  10 9 8 14 -1.</_>
                <_>
                  14 9 4 7 2.</_>
                <_>
                  10 16 4 7 2.</_></rects>
              <tilted>0</tilted></feature>
            <threshold>-1.2646090181078762e-004</threshold>
            <left_val>0.6130692958831787</left_val>
            <right_val>-0.8878542780876160</right_val></_></_>
        <_>
          <_>
            <feature>
              <rects>
                <_>
                  5 4 6 15 -1.</_>
                <_>
                  7 9 2 5 9.</_></rects>
              <tilted>0</tilted></feature>
            <threshold>-9.4700917543377727e-005</threshold>
            <left_val>0.9000536203384399</left_val>
            <right_val>-0.7405138015747070</right_val></_></_>
        <_>
          <_>
            <feature>
              <rects>
                <_>
                  13 13 10 2 -1.</_>
                <_>
                  13 13 5 2 2.</_></rects>
              <tilted>0</tilted></feature>
            <threshold>6.5569118305575103e-005</threshold>
            <left_val>-0.4362167119979858</left_val>
            <right_val>0.7567312121391296</right_val></_></_>
        <_>
          <_>
            <feature>
              <rects>
                <_>
                  7 22 4 2 -1.</_>
                <_>
                  9 22 2 2 2.</_></rects>
              <tilted>0</tilted></feature>
            <threshold>1.4481839571089949e-005</threshold>
            <left_val>-0.8307327032089233</left_val>
            <right_val>0.6665704250335693</right_val></_></_>
        <_>
          <_>
            <feature>
              <rects>
                <_>
                  15 12 1 6 -1.</_>
                <_>
                  15 12 1 3 2.</_></rects>
              <tilted>1</tilted></feature>
            <threshold>2.0141100685577840e-004</threshold>
            <left_val>-0.8364195823669434</left_val>
            <right_val>0.3421781957149506</right_val></_></_>
        <_>
          <_>
            <feature>
              <rects>
                <_>
                  1 14 12 6 -1.</_>
                <_>
                  4 14 6 6 2.</_></rects>
              <tilted>0</tilted></feature>
            <threshold>3.2304658816428855e-005</threshold>
            <left_val>-0.9228881001472473</left_val>
            <right_val>0.8731716871261597</right_val></_></_>
        <_>
          <_>
            <feature>
              <rects>
                <_>
                  12 14 6 10 -1.</_>
                <_>
                  15 14 3 5 2.</_>
                <_>
                  12 19 3 5 2.</_></rects>
              <tilted>0</tilted></feature>
            <threshold>8.8629196397960186e-005</threshold>
            <left_val>-0.9535567164421082</left_val>
            <right_val>0.4717761874198914</right_val></_></_>
        <_>
          <_>
            <feature>
              <rects>
                <_>
                  5 16 12 1 -1.</_>
                <_>
                  9 16 4 1 3.</_></rects>
              <tilted>0</tilted></feature>
            <threshold>1.1353409718140028e-005</threshold>
            <left_val>-0.9869031906127930</left_val>
            <right_val>0.9715163707733154</right_val></_></_>
        <_>
          <_>
            <feature>
              <rects>
                <_>
                  22 0 2 1 -1.</_>
                <_>
                  22 0 1 1 2.</_></rects>
              <tilted>0</tilted></feature>
            <threshold>0.</threshold>
            <left_val>0.</left_val>
            <right_val>-1.</right_val></_></_>
        <_>
          <_>
            <feature>
